<?xml version="1.0"?>
<opencv_storage>
<cascade>
  <stageType>BOOST</stageType>
  <featureType>HAAR</featureType>
  <height>24</height>
  <width>24</width>
  <stageParams>
    <boostType>GAB</boostType>
    <minHitRate>9.9900001287460327e-01</minHitRate>
    <maxFalseAlarm>4.0000000596046448e-01</maxFalseAlarm>
    <weightTrimRate>9.4999999999999996e-01</weightTrimRate>
    <maxDepth>1</maxDepth>
    <maxWeakCount>100</maxWeakCount></stageParams>
  <featureParams>
    <maxCatCount>0</maxCatCount>
    <featSize>1</featSize>
    <mode>BASIC</mode></featureParams>
  <stageNum>14</stageNum>
  <stages>
    <!-- stage 0 -->
    <_>
      <maxWeakCount>3</maxWeakCount>
      <stageThreshold>-1.3602778911590576e+00</stageThreshold>
      <weakClassifiers>
        <_>
          <internalNodes>
            0 -1 61 -1.1532959342002869e-01</internalNodes>
          <leafValues>
            5.1190477609634399e-01 -9.5471698045730591e-01</leafValues></_>
        <_>
          <internalNodes>
            0 -1 2 2.0275246351957321e-02</internalNodes>
          <leafValues>
            -8.5691964626312256e-01 6.3796991109848022e-01</leafValues></_>
        <_>
          <internalNodes>
            0 -1 37 -1.4931334555149078e-01</internalNodes>
          <leafValues>
            4.5135879516601563e-01 -9.4015645980834961e-01</leafValues></_></weakClassifiers></_>
    <!-- stage 1 -->
    <_>
      <maxWeakCount>3</maxWeakCount>
      <stageThreshold>-8.7073588371276855e-01</stageThreshold>
      <weakClassifiers>
        <_>
          <internalNodes>
            0 -1 56 2.6246362831443548e-03</internalNodes>
          <leafValues>
            -8.3728814125061035e-01 5.7971012592315674e-01</leafValues></_>
        <_>
          <internalNodes>
            0 -1 36 7.6528891921043396e-02</internalNodes>
          <leafValues>
            -7.1893054246902466e-01 6.0645622014999390e-01</leafValues></_>
        <_>
          <internalNodes>
            0 -1 62 3.4178048372268677e-02</internalNodes>
          <leafValues>
            -6.3990402221679688e-01 7.0538812875747681e-01</leafValues></_></weakClassifiers></_>
    <!-- stage 2 -->
    <_>
      <maxWeakCount>4</maxWeakCount>
      <stageThreshold>-6.2966746091842651e-01</stageThreshold>
      <weakClassifiers>
        <_>
          <internalNodes>
            0 -1 23 -3.2749503850936890e-02</internalNodes>
          <leafValues>
            6.5289258956909180e-01 -7.8846156597137451e-01</leafValues></_>
        <_>
          <internalNodes>
            0 -1 97 -1.1904144659638405e-02</internalNodes>
          <leafValues>
            4.9789595603942871e-01 -7.7488309144973755e-01</leafValues></_>
        <_>
          <internalNodes>
            0 -1 65 -2.0070952177047729e-01</internalNodes>
          <leafValues>
            -8.8278257846832275e-01 4.0108427405357361e-01</leafValues></_>
        <_>
          <internalNodes>
            0 -1 95 -3.1896112486720085e-03</internalNodes>
          <leafValues>
            5.4368072748184204e-01 -6.7107647657394409e-01</leafValues></_></weakClassifiers></_>
    <!-- stage 3 -->
    <_>
      <maxWeakCount>5</maxWeakCount>
      <stageThreshold>-8.4635144472122192e-01</stageThreshold>
      <weakClassifiers>
        <_>
          <internalNodes>
            0 -1 76 1.2457372620701790e-02</internalNodes>
          <leafValues>
            -7.7854669094085693e-01 4.0277779102325439e-01</leafValues></_>
        <_>
          <internalNodes>
            0 -1 30 -1.6455054283142090e-03</internalNodes>
          <leafValues>
            6.8709939718246460e-01 -5.5072271823883057e-01</leafValues></_>
        <_>
          <internalNodes>
            0 -1 6 3.1552347354590893e-03</internalNodes>
          <leafValues>
            -7.1926736831665039e-01 5.4503297805786133e-01</leafValues></_>
        <_>
          <internalNodes>
            0 -1 43 2.5984803214669228e-03</internalNodes>
          <leafValues>
            -6.1683350801467896e-01 5.1284581422805786e-01</leafValues></_>
        <_>
          <internalNodes>
            0 -1 4 1.3998437672853470e-02</internalNodes>
          <leafValues>
            -4.9198490381240845e-01 7.0756137371063232e-01</leafValues></_></weakClassifiers></_>
    <!-- stage 4 -->
    <_>
      <maxWeakCount>6</maxWeakCount>
      <stageThreshold>-8.8882386684417725e-01</stageThreshold>
      <weakClassifiers>
        <_>
          <internalNodes>
            0 -1 60 1.9159514456987381e-02</internalNodes>
          <leafValues>
            -6.5895950794219971e-01 7.0114940404891968e-01</leafValues></_>
        <_>
          <internalNodes>
            0 -1 41 -6.4185089431703091e-03</internalNodes>
          <leafValues>
            5.5772912502288818e-01 -5.6380945444107056e-01</leafValues></_>
        <_>
          <internalNodes>
            0 -1 88 -3.0388295650482178e-02</internalNodes>
          <leafValues>
            5.2199912071228027e-01 -5.5805903673171997e-01</leafValues></_>
        <_>
          <internalNodes>
            0 -1 22 1.2010215781629086e-02</internalNodes>
          <leafValues>
            -5.6237310171127319e-01 5.0570935010910034e-01</leafValues></_>
        <_>
          <internalNodes>
            0 -1 47 -8.9422717690467834e-02</internalNodes>
          <leafValues>
            7.8130108118057251e-01 -3.4698331356048584e-01</leafValues></_>
        <_>
          <internalNodes>
            0 -1 49 3.7153508514165878e-02</internalNodes>
          <leafValues>
            -3.4677997231483459e-01 8.3763372898101807e-01</leafValues></_></weakClassifiers></_>
    <!-- stage 5 -->
    <_>
      <maxWeakCount>7</maxWeakCount>
      <stageThreshold>-9.0542072057723999e-01</stageThreshold>
      <weakClassifiers>
        <_>
          <internalNodes>
            0 -1 58 -1.3139642775058746e-02</internalNodes>
          <leafValues>
            1.2765957415103912e-01 -7.7959185838699341e-01</leafValues></_>
        <_>
          <internalNodes>
            0 -1 50 5.6633546948432922e-02</internalNodes>
          <leafValues>
            -5.7117456197738647e-01 2.8725668787956238e-01</leafValues></_>
        <_>
          <internalNodes>
            0 -1 55 4.9967132508754730e-02</internalNodes>
          <leafValues>
            -2.7990934252738953e-01 8.0935239791870117e-01</leafValues></_>
        <_>
          <internalNodes>
            0 -1 34 -6.5078586339950562e-02</internalNodes>
          <leafValues>
            -9.1223061084747314e-01 2.5733536481857300e-01</leafValues></_>
        <_>
          <internalNodes>
            0 -1 93 -3.2307058572769165e-02</internalNodes>
          <leafValues>
            2.9798030853271484e-01 -8.0851131677627563e-01</leafValues></_>
        <_>
          <internalNodes>
            0 -1 15 1.5541869401931763e-01</internalNodes>
          <leafValues>
            -3.0063405632972717e-01 8.9668470621109009e-01</leafValues></_>
        <_>
          <internalNodes>
            0 -1 17 4.0928446687757969e-03</internalNodes>
          <leafValues>
            -3.8785782456398010e-01 6.4066672325134277e-01</leafValues></_></weakClassifiers></_>
    <!-- stage 6 -->
    <_>
      <maxWeakCount>7</maxWeakCount>
      <stageThreshold>-1.4131364822387695e+00</stageThreshold>
      <weakClassifiers>
        <_>
          <internalNodes>
            0 -1 87 -6.0924822464585304e-03</internalNodes>
          <leafValues>
            1.7419354617595673e-01 -6.9784170389175415e-01</leafValues></_>
        <_>
          <internalNodes>
            0 -1 52 -3.1191978603601456e-02</internalNodes>
          <leafValues>
            1.3523009419441223e-01 -9.1273522377014160e-01</leafValues></_>
        <_>
          <internalNodes>
            0 -1 74 3.8005247712135315e-02</internalNodes>
          <leafValues>
            -4.2866650223731995e-01 4.8098501563072205e-01</leafValues></_>
        <_>
          <internalNodes>
            0 -1 105 -4.9053656402975321e-04</internalNodes>
          <leafValues>
            5.8118987083435059e-01 -3.4847456216812134e-01</leafValues></_>
        <_>
          <internalNodes>
            0 -1 19 6.5384954214096069e-03</internalNodes>
          <leafValues>
            -6.0487389564514160e-01 3.2883840799331665e-01</leafValues></_>
        <_>
          <internalNodes>
            0 -1 45 -1.0998247191309929e-02</internalNodes>
          <leafValues>
            3.0250063538551331e-01 -7.1806538105010986e-01</leafValues></_>
        <_>
          <internalNodes>
            0 -1 25 -2.3574587702751160e-01</internalNodes>
          <leafValues>
            2.1994653344154358e-01 -7.0067489147186279e-01</leafValues></_></weakClassifiers></_>
    <!-- stage 7 -->
    <_>
      <maxWeakCount>6</maxWeakCount>
      <stageThreshold>-7.3468303680419922e-01</stageThreshold>
      <weakClassifiers>
        <_>
          <internalNodes>
            0 -1 73 6.3369553536176682e-03</internalNodes>
          <leafValues>
            -5.9064328670501709e-01 3.8461539149284363e-01</leafValues></_>
        <_>
          <internalNodes>
            0 -1 12 -2.9919645749032497e-03</internalNodes>
          <leafValues>
            -6.3571053743362427e-01 2.5180578231811523e-01</leafValues></_>
        <_>
          <internalNodes>
            0 -1 90 -1.0320733487606049e-01</internalNodes>
          <leafValues>
            6.8670201301574707e-01 -2.6642462611198425e-01</leafValues></_>
        <_>
          <internalNodes>
            0 -1 101 2.3620543070137501e-03</internalNodes>
          <leafValues>
            -4.0404269099235535e-01 5.4787898063659668e-01</leafValues></_>
        <_>
          <internalNodes>
            0 -1 42 -9.7643472254276276e-03</internalNodes>
          <leafValues>
            5.5567628145217896e-01 -3.0114960670471191e-01</leafValues></_>
        <_>
          <internalNodes>
            0 -1 89 2.9093658085912466e-03</internalNodes>
          <leafValues>
            -2.6225104928016663e-01 6.0646182298660278e-01</leafValues></_></weakClassifiers></_>
    <!-- stage 8 -->
    <_>
      <maxWeakCount>9</maxWeakCount>
      <stageThreshold>-9.7736138105392456e-01</stageThreshold>
      <weakClassifiers>
        <_>
          <internalNodes>
            0 -1 38 -7.1486220695078373e-03</internalNodes>
          <leafValues>
            1.6129031777381897e-01 -6.9064748287200928e-01</leafValues></_>
        <_>
          <internalNodes>
            0 -1 78 -5.0964474212378263e-04</internalNodes>
          <leafValues>
            3.0969417095184326e-01 -4.9292513728141785e-01</leafValues></_>
        <_>
          <internalNodes>
            0 -1 71 -2.2385690826922655e-03</internalNodes>
          <leafValues>
            2.3400838673114777e-01 -7.5338888168334961e-01</leafValues></_>
        <_>
          <internalNodes>
            0 -1 46 -1.9013544917106628e-01</internalNodes>
          <leafValues>
            3.6571475863456726e-01 -5.7171404361724854e-01</leafValues></_>
        <_>
          <internalNodes>
            0 -1 103 -1.0573256295174360e-03</internalNodes>
          <leafValues>
            -3.8807085156440735e-01 5.3546595573425293e-01</leafValues></_>
        <_>
          <internalNodes>
            0 -1 8 -4.6375103294849396e-02</internalNodes>
          <leafValues>
            2.1642345190048218e-01 -8.9897453784942627e-01</leafValues></_>
        <_>
          <internalNodes>
            0 -1 0 3.5676284460350871e-04</internalNodes>
          <leafValues>
            2.0473550260066986e-01 -7.1519982814788818e-01</leafValues></_>
        <_>
          <internalNodes>
            0 -1 9 -8.9638528879731894e-04</internalNodes>
          <leafValues>
            4.6245887875556946e-01 -3.7140509486198425e-01</leafValues></_>
        <_>
          <internalNodes>
            0 -1 29 -4.1593827307224274e-02</internalNodes>
          <leafValues>
            -7.5440931320190430e-01 2.5758373737335205e-01</leafValues></_></weakClassifiers></_>
    <!-- stage 9 -->
    <_>
      <maxWeakCount>10</maxWeakCount>
      <stageThreshold>-8.5896462202072144e-01</stageThreshold>
      <weakClassifiers>
        <_>
          <internalNodes>
            0 -1 35 9.3870282173156738e-02</internalNodes>
          <leafValues>
            -5.3887397050857544e-01 5.6666666269302368e-01</leafValues></_>
        <_>
          <internalNodes>
            0 -1 100 3.1709913164377213e-02</internalNodes>
          <leafValues>
            -3.0812638998031616e-01 6.9519799947738647e-01</leafValues></_>
        <_>
          <internalNodes>
            0 -1 27 -1.7972400784492493e-01</internalNodes>
          <leafValues>
            2.0134647190570831e-01 -8.7287229299545288e-01</leafValues></_>
        <_>
          <internalNodes>
            0 -1 39 -6.8942829966545105e-02</internalNodes>
          <leafValues>
            -6.8984001874923706e-01 1.7156492173671722e-01</leafValues></_>
        <_>
          <internalNodes>
            0 -1 79 -4.6401739120483398e-02</internalNodes>
          <leafValues>
            4.0203037858009338e-01 -3.7130713462829590e-01</leafValues></_>
        <_>
          <internalNodes>
            0 -1 91 -8.3644280675798655e-04</internalNodes>
          <leafValues>
            3.8682857155799866e-01 -3.7051281332969666e-01</leafValues></_>
        <_>
          <internalNodes>
            0 -1 92 -1.1828960850834846e-02</internalNodes>
          <leafValues>
            3.6949384212493896e-01 -3.4242433309555054e-01</leafValues></_>
        <_>
          <internalNodes>
            0 -1 59 -2.4443157017230988e-02</internalNodes>
          <leafValues>
            4.8684120178222656e-01 -2.9636824131011963e-01</leafValues></_>
        <_>
          <internalNodes>
            0 -1 82 9.4075009226799011e-02</internalNodes>
          <leafValues>
            -1.9346220791339874e-01 6.1554938554763794e-01</leafValues></_>
        <_>
          <internalNodes>
            0 -1 16 8.5623428225517273e-02</internalNodes>
          <leafValues>
            -2.0186501741409302e-01 6.6418689489364624e-01</leafValues></_></weakClassifiers></_>
    <!-- stage 10 -->
    <_>
      <maxWeakCount>11</maxWeakCount>
      <stageThreshold>-1.1020129919052124e+00</stageThreshold>
      <weakClassifiers>
        <_>
          <internalNodes>
            0 -1 20 2.3446161299943924e-02</internalNodes>
          <leafValues>
            -5.2105265855789185e-01 5.8490568399429321e-01</leafValues></_>
        <_>
          <internalNodes>
            0 -1 28 -4.8441722989082336e-02</internalNodes>
          <leafValues>
            5.9396082162857056e-01 -3.2496938109397888e-01</leafValues></_>
        <_>
          <internalNodes>
            0 -1 44 1.3078539632260799e-03</internalNodes>
          <leafValues>
            -5.6042736768722534e-01 2.9015097022056580e-01</leafValues></_>
        <_>
          <internalNodes>
            0 -1 94 6.6031003370881081e-03</internalNodes>
          <leafValues>
            -2.3281694948673248e-01 6.7473113536834717e-01</leafValues></_>
        <_>
          <internalNodes>
            0 -1 70 -8.2293048501014709e-02</internalNodes>
          <leafValues>
            6.8306779861450195e-01 -1.9862623512744904e-01</leafValues></_>
        <_>
          <internalNodes>
            0 -1 40 1.4144249260425568e-02</internalNodes>
          <leafValues>
            -1.4665189385414124e-01 7.5471937656402588e-01</leafValues></_>
        <_>
          <internalNodes>
            0 -1 84 2.3386295652016997e-04</internalNodes>
          <leafValues>
            -2.9241675138473511e-01 4.4256111979484558e-01</leafValues></_>
        <_>
          <internalNodes>
            0 -1 83 -2.7446640655398369e-02</internalNodes>
          <leafValues>
            2.2729942202568054e-01 -6.3653481006622314e-01</leafValues></_>
        <_>
          <internalNodes>
            0 -1 86 -4.2671542614698410e-02</internalNodes>
          <leafValues>
            -9.6359354257583618e-01 9.3184188008308411e-02</leafValues></_>
        <_>
          <internalNodes>
            0 -1 80 -1.5599235892295837e-02</internalNodes>
          <leafValues>
            1.3308648765087128e-01 -7.4418771266937256e-01</leafValues></_>
        <_>
          <internalNodes>
            0 -1 54 -1.9943090155720711e-02</internalNodes>
          <leafValues>
            -1.9755204021930695e-01 7.3506009578704834e-01</leafValues></_></weakClassifiers></_>
    <!-- stage 11 -->
    <_>
      <maxWeakCount>10</maxWeakCount>
      <stageThreshold>-8.5365331172943115e-01</stageThreshold>
      <weakClassifiers>
        <_>
          <internalNodes>
            0 -1 66 -8.3898752927780151e-03</internalNodes>
          <leafValues>
            -5.2278822660446167e-01 4.6666666865348816e-01</leafValues></_>
        <_>
          <internalNodes>
            0 -1 64 -5.6569995649624616e-05</internalNodes>
          <leafValues>
            2.6490208506584167e-01 -4.0591305494308472e-01</leafValues></_>
        <_>
          <internalNodes>
            0 -1 24 -5.8427207171916962e-02</internalNodes>
          <leafValues>
            7.0453631877899170e-01 -1.9042448699474335e-01</leafValues></_>
        <_>
          <internalNodes>
            0 -1 33 -7.7733434736728668e-02</internalNodes>
          <leafValues>
            -8.3438503742218018e-01 1.8413670361042023e-01</leafValues></_>
        <_>
          <internalNodes>
            0 -1 57 -4.7349642962217331e-02</internalNodes>
          <leafValues>
            1.9896633923053741e-01 -7.8998941183090210e-01</leafValues></_>
        <_>
          <internalNodes>
            0 -1 102 4.4789101229980588e-04</internalNodes>
          <leafValues>
            -3.3030217885971069e-01 3.9291116595268250e-01</leafValues></_>
        <_>
          <internalNodes>
            0 -1 68 -4.7939660726115108e-04</internalNodes>
          <leafValues>
            3.8418242335319519e-01 -3.3804923295974731e-01</leafValues></_>
        <_>
          <internalNodes>
            0 -1 77 -5.5359393358230591e-02</internalNodes>
          <leafValues>
            -6.8907260894775391e-01 2.0510107278823853e-01</leafValues></_>
        <_>
          <internalNodes>
            0 -1 26 -3.1638398766517639e-02</internalNodes>
          <leafValues>
            6.8930721282958984e-01 -2.1286766231060028e-01</leafValues></_>
        <_>
          <internalNodes>
            0 -1 96 5.8956854045391083e-03</internalNodes>
          <leafValues>
            1.5439629554748535e-01 -9.6842598915100098e-01</leafValues></_></weakClassifiers></_>
    <!-- stage 12 -->
    <_>
      <maxWeakCount>13</maxWeakCount>
      <stageThreshold>-1.2897940874099731e+00</stageThreshold>
      <weakClassifiers>
        <_>
          <internalNodes>
            0 -1 18 -1.4284783601760864e-01</internalNodes>
          <leafValues>
            2.1367521584033966e-01 -6.0759490728378296e-01</leafValues></_>
        <_>
          <internalNodes>
            0 -1 7 -9.5961922779679298e-03</internalNodes>
          <leafValues>
            2.0590780675411224e-01 -6.4050555229187012e-01</leafValues></_>
        <_>
          <internalNodes>
            0 -1 13 -1.0868799686431885e-01</internalNodes>
          <leafValues>
            -4.2717614769935608e-01 2.9826575517654419e-01</leafValues></_>
        <_>
          <internalNodes>
            0 -1 75 -7.8203931450843811e-02</internalNodes>
          <leafValues>
            6.6272675991058350e-01 -1.6901430487632751e-01</leafValues></_>
        <_>
          <internalNodes>
            0 -1 104 3.4459590096957982e-05</internalNodes>
          <leafValues>
            1.8655383586883545e-01 -6.4403879642486572e-01</leafValues></_>
        <_>
          <internalNodes>
            0 -1 11 3.5817269235849380e-03</internalNodes>
          <leafValues>
            -2.7008900046348572e-01 4.7605994343757629e-01</leafValues></_>
        <_>
          <internalNodes>
            0 -1 85 -1.9171552732586861e-02</internalNodes>
          <leafValues>
            1.6864134371280670e-01 -8.0204814672470093e-01</leafValues></_>
        <_>
          <internalNodes>
            0 -1 48 2.7492642402648926e-02</internalNodes>
          <leafValues>
            -2.3024842143058777e-01 6.3083159923553467e-01</leafValues></_>
        <_>
          <internalNodes>
            0 -1 1 6.7796888761222363e-03</internalNodes>
          <leafValues>
            -4.0030562877655029e-01 3.4774583578109741e-01</leafValues></_>
        <_>
          <internalNodes>
            0 -1 72 1.6856451984494925e-03</internalNodes>
          <leafValues>
            -2.4597588181495667e-01 4.9538639187812805e-01</leafValues></_>
        <_>
          <internalNodes>
            0 -1 31 -6.8476329033728689e-05</internalNodes>
          <leafValues>
            3.4436693787574768e-01 -3.7742769718170166e-01</leafValues></_>
        <_>
          <internalNodes>
            0 -1 53 9.8652616143226624e-03</internalNodes>
          <leafValues>
            1.5982106328010559e-01 -7.4923592805862427e-01</leafValues></_>
        <_>
          <internalNodes>
            0 -1 81 9.2990072444081306e-03</internalNodes>
          <leafValues>
            1.7447757720947266e-01 -6.2644463777542114e-01</leafValues></_></weakClassifiers></_>
    <!-- stage 13 -->
    <_>
      <maxWeakCount>13</maxWeakCount>
      <stageThreshold>-1.1956765651702881e+00</stageThreshold>
      <weakClassifiers>
        <_>
          <internalNodes>
            0 -1 3 -2.1461342275142670e-01</internalNodes>
          <leafValues>
            6.0000002384185791e-01 -4.8600509762763977e-01</leafValues></_>
        <_>
          <internalNodes>
            0 -1 5 -8.9861825108528137e-02</internalNodes>
          <leafValues>
            5.3714519739151001e-01 -3.3623254299163818e-01</leafValues></_>
        <_>
          <internalNodes>
            0 -1 63 2.6977173984050751e-03</internalNodes>
          <leafValues>
            -3.2077383995056152e-01 3.9986869692802429e-01</leafValues></_>
        <_>
          <internalNodes>
            0 -1 98 -1.5756327658891678e-02</internalNodes>
          <leafValues>
            2.2236716747283936e-01 -4.6094354987144470e-01</leafValues></_>
        <_>
          <internalNodes>
            0 -1 51 -2.8868746012449265e-03</internalNodes>
          <leafValues>
            6.1728042364120483e-01 -1.7802827060222626e-01</leafValues></_>
        <_>
          <internalNodes>
            0 -1 10 8.4049999713897705e-03</internalNodes>
          <leafValues>
            -3.3152469992637634e-01 3.7385812401771545e-01</leafValues></_>
        <_>
          <internalNodes>
            0 -1 21 1.0235325992107391e-01</internalNodes>
          <leafValues>
            -4.4596895575523376e-01 3.1246274709701538e-01</leafValues></_>
        <_>
          <internalNodes>
            0 -1 103 -1.0699537815526128e-03</internalNodes>
          <leafValues>
            -2.9348373413085938e-01 4.6084487438201904e-01</leafValues></_>
        <_>
          <internalNodes>
            0 -1 67 -9.3864686787128448e-03</internalNodes>
          <leafValues>
            1.5350618958473206e-01 -6.9405174255371094e-01</leafValues></_>
        <_>
          <internalNodes>
            0 -1 32 2.0891305059194565e-02</internalNodes>
          <leafValues>
            -1.5792597830295563e-01 7.6308274269104004e-01</leafValues></_>
        <_>
          <internalNodes>
            0 -1 99 2.0734520512633026e-04</internalNodes>
          <leafValues>
            1.9324146211147308e-01 -6.3997280597686768e-01</leafValues></_>
        <_>
          <internalNodes>
            0 -1 14 -7.2623231972102076e-05</internalNodes>
          <leafValues>
            -5.0771671533584595e-01 2.3964418470859528e-01</leafValues></_>
        <_>
          <internalNodes>
            0 -1 69 7.6931999064981937e-03</internalNodes>
          <leafValues>
            -1.7501862347126007e-01 7.4437874555587769e-01</leafValues></_></weakClassifiers></_></stages>
  <features>
    <_>
      <rects>
        <_>
          0 0 6 1 -1.</_>
        <_>
          3 0 3 1 2.</_></rects>
      <tilted>0</tilted></_>
    <_>
      <rects>
        <_>
          0 1 17 2 -1.</_>
        <_>
          0 2 17 1 2.</_></rects>
      <tilted>0</tilted></_>
    <_>
      <rects>
        <_>
          0 4 12 3 -1.</_>
        <_>
          6 4 6 3 2.</_></rects>
      <tilted>0</tilted></_>
    <_>
      <rects>
        <_>
          0 7 22 12 -1.</_>
        <_>
          0 7 11 6 2.</_>
        <_>
          11 13 11 6 2.</_></rects>
      <tilted>0</tilted></_>
    <_>
      <rects>
        <_>
          0 15 16 8 -1.</_>
        <_>
          0 15 8 4 2.</_>
        <_>
          8 19 8 4 2.</_></rects>
      <tilted>0</tilted></_>
    <_>
      <rects>
        <_>
          1 2 18 8 -1.</_>
        <_>
          1 2 9 4 2.</_>
        <_>
          10 6 9 4 2.</_></rects>
      <tilted>0</tilted></_>
    <_>
      <rects>
        <_>
          1 8 4 11 -1.</_>
        <_>
          3 8 2 11 2.</_></rects>
      <tilted>0</tilted></_>
    <_>
      <rects>
        <_>
          1 12 19 10 -1.</_>
        <_>
          1 17 19 5 2.</_></rects>
      <tilted>0</tilted></_>
    <_>
      <rects>
        <_>
          1 13 20 3 -1.</_>
        <_>
          1 14 20 1 2.</_></rects>
      <tilted>0</tilted></_>
    <_>
      <rects>
        <_>
          1 14 4 2 -1.</_>
        <_>
          1 14 2 1 2.</_>
        <_>
          3 15 2 1 2.</_></rects>
      <tilted>0</tilted></_>
    <_>
      <rects>
        <_>
          1 16 10 6 -1.</_>
        <_>
          1 16 5 3 2.</_>
        <_>
          6 19 5 3 2.</_></rects>
      <tilted>0</tilted></_>
    <_>
      <rects>
        <_>
          1 19 10 2 -1.</_>
        <_>
          1 19 5 1 2.</_>
        <_>
          6 20 5 1 2.</_></rects>
      <tilted>0</tilted></_>
    <_>
      <rects>
        <_>
          2 0 6 1 -1.</_>
        <_>
          4 0 2 1 2.</_></rects>
      <tilted>0</tilted></_>
    <_>
      <rects>
        <_>
          2 1 22 6 -1.</_>
        <_>
          2 3 22 2 2.</_></rects>
      <tilted>0</tilted></_>
    <_>
      <rects>
        <_>
          2 6 3 6 -1.</_>
        <_>
          2 9 3 3 2.</_></rects>
      <tilted>0</tilted></_>
    <_>
      <rects>
        <_>
          2 7 22 12 -1.</_>
        <_>
          2 7 11 6 2.</_>
        <_>
          13 13 11 6 2.</_></rects>
      <tilted>0</tilted></_>
    <_>
      <rects>
        <_>
          2 9 20 8 -1.</_>
        <_>
          2 9 10 4 2.</_>
        <_>
          12 13 10 4 2.</_></rects>
      <tilted>0</tilted></_>
    <_>
      <rects>
        <_>
          2 10 1 8 -1.</_>
        <_>
          2 14 1 4 2.</_></rects>
      <tilted>0</tilted></_>
    <_>
      <rects>
        <_>
          2 12 20 6 -1.</_>
        <_>
          2 14 20 2 2.</_></rects>
      <tilted>0</tilted></_>
    <_>
      <rects>
        <_>
          3 0 2 18 -1.</_>
        <_>
          3 9 2 9 2.</_></rects>
      <tilted>0</tilted></_>
    <_>
      <rects>
        <_>
          3 0 6 21 -1.</_>
        <_>
          3 7 6 7 2.</_></rects>
      <tilted>0</tilted></_>
    <_>
      <rects>
        <_>
          3 0 16 8 -1.</_>
        <_>
          3 4 16 4 2.</_></rects>
      <tilted>0</tilted></_>
    <_>
      <rects>
        <_>
          3 1 11 4 -1.</_>
        <_>
          3 3 11 2 2.</_></rects>
      <tilted>0</tilted></_>
    <_>
      <rects>
        <_>
          3 4 12 8 -1.</_>
        <_>
          3 4 6 4 2.</_>
        <_>
          9 8 6 4 2.</_></rects>
      <tilted>0</tilted></_>
    <_>
      <rects>
        <_>
          3 4 14 6 -1.</_>
        <_>
          3 4 7 3 2.</_>
        <_>
          10 7 7 3 2.</_></rects>
      <tilted>0</tilted></_>
    <_>
      <rects>
        <_>
          3 7 18 15 -1.</_>
        <_>
          3 12 18 5 2.</_></rects>
      <tilted>0</tilted></_>
    <_>
      <rects>
        <_>
          3 8 2 12 -1.</_>
        <_>
          3 14 2 6 2.</_></rects>
      <tilted>0</tilted></_>
    <_>
      <rects>
        <_>
          3 8 21 12 -1.</_>
        <_>
          3 12 21 4 2.</_></rects>
      <tilted>0</tilted></_>
    <_>
      <rects>
        <_>
          3 10 18 6 -1.</_>
        <_>
          3 10 9 3 2.</_>
        <_>
          12 13 9 3 2.</_></rects>
      <tilted>0</tilted></_>
    <_>
      <rects>
        <_>
          3 12 11 3 -1.</_>
        <_>
          3 13 11 1 2.</_></rects>
      <tilted>0</tilted></_>
    <_>
      <rects>
        <_>
          3 20 4 4 -1.</_>
        <_>
          3 20 2 2 2.</_>
        <_>
          5 22 2 2 2.</_></rects>
      <tilted>0</tilted></_>
    <_>
      <rects>
        <_>
          3 21 4 2 -1.</_>
        <_>
          3 21 2 1 2.</_>
        <_>
          5 22 2 1 2.</_></rects>
      <tilted>0</tilted></_>
    <_>
      <rects>
        <_>
          4 4 6 12 -1.</_>
        <_>
          4 4 3 6 2.</_>
        <_>
          7 10 3 6 2.</_></rects>
      <tilted>0</tilted></_>
    <_>
      <rects>
        <_>
          4 5 14 15 -1.</_>
        <_>
          11 5 7 15 2.</_></rects>
      <tilted>0</tilted></_>
    <_>
      <rects>
        <_>
          4 17 19 3 -1.</_>
        <_>
          4 18 19 1 2.</_></rects>
      <tilted>0</tilted></_>
    <_>
      <rects>
        <_>
          5 0 7 8 -1.</_>
        <_>
          5 4 7 4 2.</_></rects>
      <tilted>0</tilted></_>
    <_>
      <rects>
        <_>
          5 0 16 8 -1.</_>
        <_>
          5 4 16 4 2.</_></rects>
      <tilted>0</tilted></_>
    <_>
      <rects>
        <_>
          5 10 15 12 -1.</_>
        <_>
          5 14 15 4 2.</_></rects>
      <tilted>0</tilted></_>
    <_>
      <rects>
        <_>
          5 13 16 2 -1.</_>
        <_>
          5 14 16 1 2.</_></rects>
      <tilted>0</tilted></_>
    <_>
      <rects>
        <_>
          5 13 19 3 -1.</_>
        <_>
          5 14 19 1 2.</_></rects>
      <tilted>0</tilted></_>
    <_>
      <rects>
        <_>
          5 19 17 2 -1.</_>
        <_>
          5 20 17 1 2.</_></rects>
      <tilted>0</tilted></_>
    <_>
      <rects>
        <_>
          5 20 5 4 -1.</_>
        <_>
          5 22 5 2 2.</_></rects>
      <tilted>0</tilted></_>
    <_>
      <rects>
        <_>
          5 21 12 2 -1.</_>
        <_>
          5 22 12 1 2.</_></rects>
      <tilted>0</tilted></_>
    <_>
      <rects>
        <_>
          6 0 4 6 -1.</_>
        <_>
          8 0 2 6 2.</_></rects>
      <tilted>0</tilted></_>
    <_>
      <rects>
        <_>
          6 1 9 2 -1.</_>
        <_>
          6 2 9 1 2.</_></rects>
      <tilted>0</tilted></_>
    <_>
      <rects>
        <_>
          6 3 11 10 -1.</_>
        <_>
          6 8 11 5 2.</_></rects>
      <tilted>0</tilted></_>
    <_>
      <rects>
        <_>
          6 4 12 15 -1.</_>
        <_>
          6 9 12 5 2.</_></rects>
      <tilted>0</tilted></_>
    <_>
      <rects>
        <_>
          6 7 16 14 -1.</_>
        <_>
          6 7 8 7 2.</_>
        <_>
          14 14 8 7 2.</_></rects>
      <tilted>0</tilted></_>
    <_>
      <rects>
        <_>
          6 7 18 4 -1.</_>
        <_>
          6 7 9 2 2.</_>
        <_>
          15 9 9 2 2.</_></rects>
      <tilted>0</tilted></_>
    <_>
      <rects>
        <_>
          6 9 14 10 -1.</_>
        <_>
          6 9 7 5 2.</_>
        <_>
          13 14 7 5 2.</_></rects>
      <tilted>0</tilted></_>
    <_>
      <rects>
        <_>
          7 0 13 6 -1.</_>
        <_>
          7 3 13 3 2.</_></rects>
      <tilted>0</tilted></_>
    <_>
      <rects>
        <_>
          7 2 4 4 -1.</_>
        <_>
          7 4 4 2 2.</_></rects>
      <tilted>0</tilted></_>
    <_>
      <rects>
        <_>
          7 6 3 13 -1.</_>
        <_>
          8 6 1 13 2.</_></rects>
      <tilted>0</tilted></_>
    <_>
      <rects>
        <_>
          7 13 4 8 -1.</_>
        <_>
          7 17 4 4 2.</_></rects>
      <tilted>0</tilted></_>
    <_>
      <rects>
        <_>
          8 0 6 15 -1.</_>
        <_>
          8 5 6 5 2.</_></rects>
      <tilted>0</tilted></_>
    <_>
      <rects>
        <_>
          8 1 12 8 -1.</_>
        <_>
          8 1 6 4 2.</_>
        <_>
          14 5 6 4 2.</_></rects>
      <tilted>0</tilted></_>
    <_>
      <rects>
        <_>
          8 1 9 2 -1.</_>
        <_>
          8 2 9 1 2.</_></rects>
      <tilted>0</tilted></_>
    <_>
      <rects>
        <_>
          8 2 3 18 -1.</_>
        <_>
          9 2 1 18 2.</_></rects>
      <tilted>0</tilted></_>
    <_>
      <rects>
        <_>
          8 6 8 4 -1.</_>
        <_>
          8 8 8 2 2.</_></rects>
      <tilted>0</tilted></_>
    <_>
      <rects>
        <_>
          8 9 6 10 -1.</_>
        <_>
          11 9 3 10 2.</_></rects>
      <tilted>0</tilted></_>
    <_>
      <rects>
        <_>
          8 12 16 4 -1.</_>
        <_>
          8 12 8 2 2.</_>
        <_>
          16 14 8 2 2.</_></rects>
      <tilted>0</tilted></_>
    <_>
      <rects>
        <_>
          9 2 6 21 -1.</_>
        <_>
          11 2 2 21 2.</_></rects>
      <tilted>0</tilted></_>
    <_>
      <rects>
        <_>
          9 2 12 10 -1.</_>
        <_>
          9 2 6 5 2.</_>
        <_>
          15 7 6 5 2.</_></rects>
      <tilted>0</tilted></_>
    <_>
      <rects>
        <_>
          9 3 9 2 -1.</_>
        <_>
          9 4 9 1 2.</_></rects>
      <tilted>0</tilted></_>
    <_>
      <rects>
        <_>
          9 5 1 2 -1.</_>
        <_>
          9 6 1 1 2.</_></rects>
      <tilted>0</tilted></_>
    <_>
      <rects>
        <_>
          9 5 10 15 -1.</_>
        <_>
          9 10 10 5 2.</_></rects>
      <tilted>0</tilted></_>
    <_>
      <rects>
        <_>
          9 10 6 6 -1.</_>
        <_>
          9 12 6 2 2.</_></rects>
      <tilted>0</tilted></_>
    <_>
      <rects>
        <_>
          9 18 3 6 -1.</_>
        <_>
          10 18 1 6 2.</_></rects>
      <tilted>0</tilted></_>
    <_>
      <rects>
        <_>
          9 21 1 2 -1.</_>
        <_>
          9 22 1 1 2.</_></rects>
      <tilted>0</tilted></_>
    <_>
      <rects>
        <_>
          10 0 2 12 -1.</_>
        <_>
          10 4 2 4 2.</_></rects>
      <tilted>0</tilted></_>
    <_>
      <rects>
        <_>
          10 6 5 9 -1.</_>
        <_>
          10 9 5 3 2.</_></rects>
      <tilted>0</tilted></_>
    <_>
      <rects>
        <_>
          10 10 5 10 -1.</_>
        <_>
          10 15 5 5 2.</_></rects>
      <tilted>0</tilted></_>
    <_>
      <rects>
        <_>
          10 19 10 2 -1.</_>
        <_>
          10 19 5 1 2.</_>
        <_>
          15 20 5 1 2.</_></rects>
      <tilted>0</tilted></_>
    <_>
      <rects>
        <_>
          10 22 14 2 -1.</_>
        <_>
          10 22 7 1 2.</_>
        <_>
          17 23 7 1 2.</_></rects>
      <tilted>0</tilted></_>
    <_>
      <rects>
        <_>
          11 2 8 10 -1.</_>
        <_>
          11 2 4 5 2.</_>
        <_>
          15 7 4 5 2.</_></rects>
      <tilted>0</tilted></_>
    <_>
      <rects>
        <_>
          11 3 8 12 -1.</_>
        <_>
          11 9 8 6 2.</_></rects>
      <tilted>0</tilted></_>
    <_>
      <rects>
        <_>
          11 6 10 4 -1.</_>
        <_>
          11 6 5 2 2.</_>
        <_>
          16 8 5 2 2.</_></rects>
      <tilted>0</tilted></_>
    <_>
      <rects>
        <_>
          12 4 12 3 -1.</_>
        <_>
          16 4 4 3 2.</_></rects>
      <tilted>0</tilted></_>
    <_>
      <rects>
        <_>
          12 5 3 2 -1.</_>
        <_>
          12 6 3 1 2.</_></rects>
      <tilted>0</tilted></_>
    <_>
      <rects>
        <_>
          12 5 3 9 -1.</_>
        <_>
          12 8 3 3 2.</_></rects>
      <tilted>0</tilted></_>
    <_>
      <rects>
        <_>
          12 11 2 12 -1.</_>
        <_>
          12 15 2 4 2.</_></rects>
      <tilted>0</tilted></_>
    <_>
      <rects>
        <_>
          12 16 12 6 -1.</_>
        <_>
          12 19 12 3 2.</_></rects>
      <tilted>0</tilted></_>
    <_>
      <rects>
        <_>
          13 1 11 10 -1.</_>
        <_>
          13 6 11 5 2.</_></rects>
      <tilted>0</tilted></_>
    <_>
      <rects>
        <_>
          13 3 9 4 -1.</_>
        <_>
          16 3 3 4 2.</_></rects>
      <tilted>0</tilted></_>
    <_>
      <rects>
        <_>
          13 4 2 2 -1.</_>
        <_>
          13 4 1 1 2.</_>
        <_>
          14 5 1 1 2.</_></rects>
      <tilted>0</tilted></_>
    <_>
      <rects>
        <_>
          13 11 9 5 -1.</_>
        <_>
          16 11 3 5 2.</_></rects>
      <tilted>0</tilted></_>
    <_>
      <rects>
        <_>
          13 14 10 3 -1.</_>
        <_>
          13 15 10 1 2.</_></rects>
      <tilted>0</tilted></_>
    <_>
      <rects>
        <_>
          13 21 10 2 -1.</_>
        <_>
          18 21 5 2 2.</_></rects>
      <tilted>0</tilted></_>
    <_>
      <rects>
        <_>
          14 4 10 4 -1.</_>
        <_>
          19 4 5 4 2.</_></rects>
      <tilted>0</tilted></_>
    <_>
      <rects>
        <_>
          14 20 8 2 -1.</_>
        <_>
          14 20 4 1 2.</_>
        <_>
          18 21 4 1 2.</_></rects>
      <tilted>0</tilted></_>
    <_>
      <rects>
        <_>
          15 6 6 14 -1.</_>
        <_>
          15 13 6 7 2.</_></rects>
      <tilted>0</tilted></_>
    <_>
      <rects>
        <_>
          15 13 6 1 -1.</_>
        <_>
          18 13 3 1 2.</_></rects>
      <tilted>0</tilted></_>
    <_>
      <rects>
        <_>
          15 15 9 6 -1.</_>
        <_>
          15 18 9 3 2.</_></rects>
      <tilted>0</tilted></_>
    <_>
      <rects>
        <_>
          16 9 3 14 -1.</_>
        <_>
          17 9 1 14 2.</_></rects>
      <tilted>0</tilted></_>
    <_>
      <rects>
        <_>
          16 11 5 4 -1.</_>
        <_>
          16 13 5 2 2.</_></rects>
      <tilted>0</tilted></_>
    <_>
      <rects>
        <_>
          16 16 8 4 -1.</_>
        <_>
          16 18 8 2 2.</_></rects>
      <tilted>0</tilted></_>
    <_>
      <rects>
        <_>
          17 9 2 8 -1.</_>
        <_>
          17 9 1 4 2.</_>
        <_>
          18 13 1 4 2.</_></rects>
      <tilted>0</tilted></_>
    <_>
      <rects>
        <_>
          18 3 6 16 -1.</_>
        <_>
          21 3 3 16 2.</_></rects>
      <tilted>0</tilted></_>
    <_>
      <rects>
        <_>
          18 12 3 6 -1.</_>
        <_>
          18 14 3 2 2.</_></rects>
      <tilted>0</tilted></_>
    <_>
      <rects>
        <_>
          19 5 2 1 -1.</_>
        <_>
          20 5 1 1 2.</_></rects>
      <tilted>0</tilted></_>
    <_>
      <rects>
        <_>
          20 6 4 18 -1.</_>
        <_>
          20 6 2 9 2.</_>
        <_>
          22 15 2 9 2.</_></rects>
      <tilted>0</tilted></_>
    <_>
      <rects>
        <_>
          21 10 1 8 -1.</_>
        <_>
          21 14 1 4 2.</_></rects>
      <tilted>0</tilted></_>
    <_>
      <rects>
        <_>
          21 17 2 3 -1.</_>
        <_>
          22 17 1 3 2.</_></rects>
      <tilted>0</tilted></_>
    <_>
      <rects>
        <_>
          21 22 3 2 -1.</_>
        <_>
          22 22 1 2 2.</_></rects>
      <tilted>0</tilted></_>
    <_>
      <rects>
        <_>
          22 0 2 2 -1.</_>
        <_>
          22 0 1 1 2.</_>
        <_>
          23 1 1 1 2.</_></rects>
      <tilted>0</tilted></_>
    <_>
      <rects>
        <_>
          22 9 2 8 -1.</_>
        <_>
          22 9 1 4 2.</_>
        <_>
          23 13 1 4 2.</_></rects>
      <tilted>0</tilted></_></features></cascade>
</opencv_storage>
