<?xml version="1.0"?>
<opencv_storage>
<stage8>
  <maxWeakCount>9</maxWeakCount>
  <stageThreshold>-9.7736138105392456e-01</stageThreshold>
  <weakClassifiers>
    <_>
      <internalNodes>
        0 -1 68874 -7.1486220695078373e-03</internalNodes>
      <leafValues>
        1.6129031777381897e-01 -6.9064748287200928e-01</leafValues></_>
    <_>
      <internalNodes>
        0 -1 123961 -5.0964474212378263e-04</internalNodes>
      <leafValues>
        3.0969417095184326e-01 -4.9292513728141785e-01</leafValues></_>
    <_>
      <internalNodes>
        0 -1 112009 -2.2385690826922655e-03</internalNodes>
      <leafValues>
        2.3400838673114777e-01 -7.5338888168334961e-01</leafValues></_>
    <_>
      <internalNodes>
        0 -1 74351 -1.9013544917106628e-01</internalNodes>
      <leafValues>
        3.6571475863456726e-01 -5.7171404361724854e-01</leafValues></_>
    <_>
      <internalNodes>
        0 -1 161179 -1.0573256295174360e-03</internalNodes>
      <leafValues>
        -3.8807085156440735e-01 5.3546595573425293e-01</leafValues></_>
    <_>
      <internalNodes>
        0 -1 23588 -4.6375103294849396e-02</internalNodes>
      <leafValues>
        2.1642345190048218e-01 -8.9897453784942627e-01</leafValues></_>
    <_>
      <internalNodes>
        0 -1 160 3.5676284460350871e-04</internalNodes>
      <leafValues>
        2.0473550260066986e-01 -7.1519982814788818e-01</leafValues></_>
    <_>
      <internalNodes>
        0 -1 23656 -8.9638528879731894e-04</internalNodes>
      <leafValues>
        4.6245887875556946e-01 -3.7140509486198425e-01</leafValues></_>
    <_>
      <internalNodes>
        0 -1 46937 -4.1593827307224274e-02</internalNodes>
      <leafValues>
        -7.5440931320190430e-01 2.5758373737335205e-01</leafValues></_></weakClassifiers></stage8>
</opencv_storage>
