<?xml version="1.0"?>
<opencv_storage>
<stage13>
  <maxWeakCount>13</maxWeakCount>
  <stageThreshold>-1.1956765651702881e+00</stageThreshold>
  <weakClassifiers>
    <_>
      <internalNodes>
        0 -1 7198 -2.1461342275142670e-01</internalNodes>
      <leafValues>
        6.0000002384185791e-01 -4.8600509762763977e-01</leafValues></_>
    <_>
      <internalNodes>
        0 -1 15942 -8.9861825108528137e-02</internalNodes>
      <leafValues>
        5.3714519739151001e-01 -3.3623254299163818e-01</leafValues></_>
    <_>
      <internalNodes>
        0 -1 101016 2.6977173984050751e-03</internalNodes>
      <leafValues>
        -3.2077383995056152e-01 3.9986869692802429e-01</leafValues></_>
    <_>
      <internalNodes>
        0 -1 154472 -1.5756327658891678e-02</internalNodes>
      <leafValues>
        2.2236716747283936e-01 -4.6094354987144470e-01</leafValues></_>
    <_>
      <internalNodes>
        0 -1 82426 -2.8868746012449265e-03</internalNodes>
      <leafValues>
        6.1728042364120483e-01 -1.7802827060222626e-01</leafValues></_>
    <_>
      <internalNodes>
        0 -1 24522 8.4049999713897705e-03</internalNodes>
      <leafValues>
        -3.3152469992637634e-01 3.7385812401771545e-01</leafValues></_>
    <_>
      <internalNodes>
        0 -1 38814 1.0235325992107391e-01</internalNodes>
      <leafValues>
        -4.4596895575523376e-01 3.1246274709701538e-01</leafValues></_>
    <_>
      <internalNodes>
        0 -1 161179 -1.0699537815526128e-03</internalNodes>
      <leafValues>
        -2.9348373413085938e-01 4.6084487438201904e-01</leafValues></_>
    <_>
      <internalNodes>
        0 -1 106294 -9.3864686787128448e-03</internalNodes>
      <leafValues>
        1.5350618958473206e-01 -6.9405174255371094e-01</leafValues></_>
    <_>
      <internalNodes>
        0 -1 52977 2.0891305059194565e-02</internalNodes>
      <leafValues>
        -1.5792597830295563e-01 7.6308274269104004e-01</leafValues></_>
    <_>
      <internalNodes>
        0 -1 156115 2.0734520512633026e-04</internalNodes>
      <leafValues>
        1.9324146211147308e-01 -6.3997280597686768e-01</leafValues></_>
    <_>
      <internalNodes>
        0 -1 31238 -7.2623231972102076e-05</internalNodes>
      <leafValues>
        -5.0771671533584595e-01 2.3964418470859528e-01</leafValues></_>
    <_>
      <internalNodes>
        0 -1 106898 7.6931999064981937e-03</internalNodes>
      <leafValues>
        -1.7501862347126007e-01 7.4437874555587769e-01</leafValues></_></weakClassifiers></stage13>
</opencv_storage>
