<?xml version="1.0"?>
<opencv_storage>
<stage11>
  <maxWeakCount>10</maxWeakCount>
  <stageThreshold>-8.5365331172943115e-01</stageThreshold>
  <weakClassifiers>
    <_>
      <internalNodes>
        0 -1 104248 -8.3898752927780151e-03</internalNodes>
      <leafValues>
        -5.2278822660446167e-01 4.6666666865348816e-01</leafValues></_>
    <_>
      <internalNodes>
        0 -1 101686 -5.6569995649624616e-05</internalNodes>
      <leafValues>
        2.6490208506584167e-01 -4.0591305494308472e-01</leafValues></_>
    <_>
      <internalNodes>
        0 -1 41893 -5.8427207171916962e-02</internalNodes>
      <leafValues>
        7.0453631877899170e-01 -1.9042448699474335e-01</leafValues></_>
    <_>
      <internalNodes>
        0 -1 53966 -7.7733434736728668e-02</internalNodes>
      <leafValues>
        -8.3438503742218018e-01 1.8413670361042023e-01</leafValues></_>
    <_>
      <internalNodes>
        0 -1 91291 -4.7349642962217331e-02</internalNodes>
      <leafValues>
        1.9896633923053741e-01 -7.8998941183090210e-01</leafValues></_>
    <_>
      <internalNodes>
        0 -1 161069 4.4789101229980588e-04</internalNodes>
      <leafValues>
        -3.3030217885971069e-01 3.9291116595268250e-01</leafValues></_>
    <_>
      <internalNodes>
        0 -1 106670 -4.7939660726115108e-04</internalNodes>
      <leafValues>
        3.8418242335319519e-01 -3.3804923295974731e-01</leafValues></_>
    <_>
      <internalNodes>
        0 -1 123594 -5.5359393358230591e-02</internalNodes>
      <leafValues>
        -6.8907260894775391e-01 2.0510107278823853e-01</leafValues></_>
    <_>
      <internalNodes>
        0 -1 44419 -3.1638398766517639e-02</internalNodes>
      <leafValues>
        6.8930721282958984e-01 -2.1286766231060028e-01</leafValues></_>
    <_>
      <internalNodes>
        0 -1 150498 5.8956854045391083e-03</internalNodes>
      <leafValues>
        1.5439629554748535e-01 -9.6842598915100098e-01</leafValues></_></weakClassifiers></stage11>
</opencv_storage>
