<?xml version="1.0"?>
<opencv_storage>
<stage7>
  <maxWeakCount>7</maxWeakCount>
  <stageThreshold>-1.3957840204238892e+00</stageThreshold>
  <weakClassifiers>
    <_>
      <internalNodes>
        0 -1 95064 -6.5154984593391418e-02</internalNodes>
      <leafValues>
        1.8181818723678589e-01 -7.3684209585189819e-01</leafValues></_>
    <_>
      <internalNodes>
        0 -1 12246 7.5236742850393057e-04</internalNodes>
      <leafValues>
        -4.6037036180496216e-01 5.4058194160461426e-01</leafValues></_>
    <_>
      <internalNodes>
        0 -1 82841 8.5973357781767845e-03</internalNodes>
      <leafValues>
        -9.6300625801086426e-01 2.3674839735031128e-01</leafValues></_>
    <_>
      <internalNodes>
        0 -1 106308 3.9462028071284294e-03</internalNodes>
      <leafValues>
        -3.8073176145553589e-01 6.8024104833602905e-01</leafValues></_>
    <_>
      <internalNodes>
        0 -1 149395 -7.4999872595071793e-04</internalNodes>
      <leafValues>
        2.8863915801048279e-01 -9.0944480895996094e-01</leafValues></_>
    <_>
      <internalNodes>
        0 -1 51092 8.1165265291929245e-03</internalNodes>
      <leafValues>
        -5.5773591995239258e-01 3.3500882983207703e-01</leafValues></_>
    <_>
      <internalNodes>
        0 -1 161312 1.6665717703290284e-04</internalNodes>
      <leafValues>
        2.1450859308242798e-01 -9.0591406822204590e-01</leafValues></_></weakClassifiers></stage7>
</opencv_storage>
